digraph Tree {
node [shape=box, style="filled, rounded", color="black", fontname=helvetica] ;
edge [fontname=helvetica] ;
0 [label=<petal width (cm) &le; 0.8<br/>gini = 0.657<br/>samples = 77<br/>value = [32, 48, 38]<br/>class = versicolor>, fillcolor="#39e58120"] ;
1 [label=<gini = 0.0<br/>samples = 20<br/>value = [32, 0, 0]<br/>class = setosa>, fillcolor="#e58139ff"] ;
0 -> 1 [labeldistance=2.5, labelangle=45, headlabel="True"] ;
2 [label=<petal width (cm) &le; 1.75<br/>gini = 0.493<br/>samples = 57<br/>value = [0, 48, 38]<br/>class = versicolor>, fillcolor="#39e58135"] ;
0 -> 2 [labeldistance=2.5, labelangle=-45, headlabel="False"] ;
3 [label=<petal length (cm) &le; 4.85<br/>gini = 0.222<br/>samples = 34<br/>value = [0, 48, 7]<br/>class = versicolor>, fillcolor="#39e581da"] ;
2 -> 3 ;
4 [label=<petal width (cm) &le; 1.65<br/>gini = 0.042<br/>samples = 30<br/>value = [0, 46, 1]<br/>class = versicolor>, fillcolor="#39e581f9"] ;
3 -> 4 ;
5 [label=<gini = 0.0<br/>samples = 29<br/>value = [0, 46, 0]<br/>class = versicolor>, fillcolor="#39e581ff"] ;
4 -> 5 ;
6 [label=<gini = 0.0<br/>samples = 1<br/>value = [0, 0, 1]<br/>class = virginica>, fillcolor="#8139e5ff"] ;
4 -> 6 ;
7 [label=<petal width (cm) &le; 1.65<br/>gini = 0.375<br/>samples = 4<br/>value = [0, 2, 6]<br/>class = virginica>, fillcolor="#8139e5aa"] ;
3 -> 7 ;
8 [label=<gini = 0.0<br/>samples = 3<br/>value = [0, 0, 6]<br/>class = virginica>, fillcolor="#8139e5ff"] ;
7 -> 8 ;
9 [label=<gini = 0.0<br/>samples = 1<br/>value = [0, 2, 0]<br/>class = versicolor>, fillcolor="#39e581ff"] ;
7 -> 9 ;
10 [label=<gini = 0.0<br/>samples = 23<br/>value = [0, 0, 31]<br/>class = virginica>, fillcolor="#8139e5ff"] ;
2 -> 10 ;
}
